digraph Tree {
node [shape=box] ;
0 [label="Sex <= 0.5\ngini = 0.473\nsamples = 891\nvalue = [549, 342]"] ;
1 [label="Age_Class <= 5.5\ngini = 0.306\nsamples = 577\nvalue = [468, 109]"] ;
0 -> 1 [labeldistance=2.5, labelangle=45, headlabel="True"] ;
2 [label="relatives <= 3.5\ngini = 0.46\nsamples = 145\nvalue = [93, 52]"] ;
1 -> 2 ;
3 [label="Age_Class <= 0.5\ngini = 0.484\nsamples = 124\nvalue = [73, 51]"] ;
2 -> 3 ;
4 [label="relatives <= 0.5\ngini = 0.095\nsamples = 20\nvalue = [1, 19]"] ;
3 -> 4 ;
5 [label="gini = 0.0\nsamples = 1\nvalue = [1, 0]"] ;
4 -> 5 ;
6 [label="gini = 0.0\nsamples = 19\nvalue = [0, 19]"] ;
4 -> 6 ;
7 [label="Age <= 2.5\ngini = 0.426\nsamples = 104\nvalue = [72, 32]"] ;
3 -> 7 ;
8 [label="Embarked <= 0.5\ngini = 0.214\nsamples = 41\nvalue = [36, 5]"] ;
7 -> 8 ;
9 [label="relatives <= 0.5\ngini = 0.157\nsamples = 35\nvalue = [32, 3]"] ;
8 -> 9 ;
10 [label="gini = 0.219\nsamples = 24\nvalue = [21, 3]"] ;
9 -> 10 ;
11 [label="gini = 0.0\nsamples = 11\nvalue = [11, 0]"] ;
9 -> 11 ;
12 [label="Fare <= 0.5\ngini = 0.444\nsamples = 6\nvalue = [4, 2]"] ;
8 -> 12 ;
13 [label="gini = 0.0\nsamples = 2\nvalue = [2, 0]"] ;
12 -> 13 ;
14 [label="gini = 0.5\nsamples = 4\nvalue = [2, 2]"] ;
12 -> 14 ;
15 [label="Fare <= 1.0\ngini = 0.49\nsamples = 63\nvalue = [36, 27]"] ;
7 -> 15 ;
16 [label="gini = 0.0\nsamples = 6\nvalue = [6, 0]"] ;
15 -> 16 ;
17 [label="Age_Class <= 4.5\ngini = 0.499\nsamples = 57\nvalue = [30, 27]"] ;
15 -> 17 ;
18 [label="gini = 0.48\nsamples = 40\nvalue = [24, 16]"] ;
17 -> 18 ;
19 [label="gini = 0.457\nsamples = 17\nvalue = [6, 11]"] ;
17 -> 19 ;
20 [label="relatives <= 5.5\ngini = 0.091\nsamples = 21\nvalue = [20, 1]"] ;
2 -> 20 ;
21 [label="gini = 0.0\nsamples = 14\nvalue = [14, 0]"] ;
20 -> 21 ;
22 [label="SibSp <= 4.5\ngini = 0.245\nsamples = 7\nvalue = [6, 1]"] ;
20 -> 22 ;
23 [label="gini = 0.444\nsamples = 3\nvalue = [2, 1]"] ;
22 -> 23 ;
24 [label="gini = 0.0\nsamples = 4\nvalue = [4, 0]"] ;
22 -> 24 ;
25 [label="Pclass <= 1.5\ngini = 0.229\nsamples = 432\nvalue = [375, 57]"] ;
1 -> 25 ;
26 [label="SibSp <= 0.5\ngini = 0.403\nsamples = 50\nvalue = [36, 14]"] ;
25 -> 26 ;
27 [label="Fare <= 2.5\ngini = 0.334\nsamples = 33\nvalue = [26, 7]"] ;
26 -> 27 ;
28 [label="Embarked <= 0.5\ngini = 0.444\nsamples = 18\nvalue = [12, 6]"] ;
27 -> 28 ;
29 [label="gini = 0.469\nsamples = 16\nvalue = [10, 6]"] ;
28 -> 29 ;
30 [label="gini = 0.0\nsamples = 2\nvalue = [2, 0]"] ;
28 -> 30 ;
31 [label="Embarked <= 0.5\ngini = 0.124\nsamples = 15\nvalue = [14, 1]"] ;
27 -> 31 ;
32 [label="gini = 0.0\nsamples = 8\nvalue = [8, 0]"] ;
31 -> 32 ;
33 [label="relatives <= 0.5\ngini = 0.245\nsamples = 7\nvalue = [6, 1]"] ;
31 -> 33 ;
34 [label="gini = 0.375\nsamples = 4\nvalue = [3, 1]"] ;
33 -> 34 ;
35 [label="gini = 0.0\nsamples = 3\nvalue = [3, 0]"] ;
33 -> 35 ;
36 [label="Embarked <= 0.5\ngini = 0.484\nsamples = 17\nvalue = [10, 7]"] ;
26 -> 36 ;
37 [label="SibSp <= 1.5\ngini = 0.42\nsamples = 10\nvalue = [7, 3]"] ;
36 -> 37 ;
38 [label="relatives <= 1.5\ngini = 0.346\nsamples = 9\nvalue = [7, 2]"] ;
37 -> 38 ;
39 [label="gini = 0.444\nsamples = 6\nvalue = [4, 2]"] ;
38 -> 39 ;
40 [label="gini = 0.0\nsamples = 3\nvalue = [3, 0]"] ;
38 -> 40 ;
41 [label="gini = 0.0\nsamples = 1\nvalue = [0, 1]"] ;
37 -> 41 ;
42 [label="Fare <= 3.5\ngini = 0.49\nsamples = 7\nvalue = [3, 4]"] ;
36 -> 42 ;
43 [label="SibSp <= 1.5\ngini = 0.32\nsamples = 5\nvalue = [1, 4]"] ;
42 -> 43 ;
44 [label="gini = 0.0\nsamples = 4\nvalue = [0, 4]"] ;
43 -> 44 ;
45 [label="gini = 0.0\nsamples = 1\nvalue = [1, 0]"] ;
43 -> 45 ;
46 [label="gini = 0.0\nsamples = 2\nvalue = [2, 0]"] ;
42 -> 46 ;
47 [label="Fare <= 2.5\ngini = 0.2\nsamples = 382\nvalue = [339, 43]"] ;
25 -> 47 ;
48 [label="Age <= 4.5\ngini = 0.187\nsamples = 364\nvalue = [326, 38]"] ;
47 -> 48 ;
49 [label="relatives <= 1.5\ngini = 0.209\nsamples = 270\nvalue = [238, 32]"] ;
48 -> 49 ;
50 [label="Age_Class <= 10.5\ngini = 0.195\nsamples = 256\nvalue = [228, 28]"] ;
49 -> 50 ;
51 [label="gini = 0.172\nsamples = 211\nvalue = [191, 20]"] ;
50 -> 51 ;
52 [label="gini = 0.292\nsamples = 45\nvalue = [37, 8]"] ;
50 -> 52 ;
53 [label="Embarked <= 0.5\ngini = 0.408\nsamples = 14\nvalue = [10, 4]"] ;
49 -> 53 ;
54 [label="gini = 0.0\nsamples = 9\nvalue = [9, 0]"] ;
53 -> 54 ;
55 [label="gini = 0.32\nsamples = 5\nvalue = [1, 4]"] ;
53 -> 55 ;
56 [label="Fare <= 0.5\ngini = 0.12\nsamples = 94\nvalue = [88, 6]"] ;
48 -> 56 ;
57 [label="gini = 0.0\nsamples = 29\nvalue = [29, 0]"] ;
56 -> 57 ;
58 [label="Fare <= 1.5\ngini = 0.168\nsamples = 65\nvalue = [59, 6]"] ;
56 -> 58 ;
59 [label="gini = 0.24\nsamples = 43\nvalue = [37, 6]"] ;
58 -> 59 ;
60 [label="gini = 0.0\nsamples = 22\nvalue = [22, 0]"] ;
58 -> 60 ;
61 [label="relatives <= 0.5\ngini = 0.401\nsamples = 18\nvalue = [13, 5]"] ;
47 -> 61 ;
62 [label="Age <= 3.5\ngini = 0.408\nsamples = 7\nvalue = [2, 5]"] ;
61 -> 62 ;
63 [label="gini = 0.375\nsamples = 4\nvalue = [1, 3]"] ;
62 -> 63 ;
64 [label="gini = 0.444\nsamples = 3\nvalue = [1, 2]"] ;
62 -> 64 ;
65 [label="gini = 0.0\nsamples = 11\nvalue = [11, 0]"] ;
61 -> 65 ;
66 [label="Pclass <= 2.5\ngini = 0.383\nsamples = 314\nvalue = [81, 233]"] ;
0 -> 66 [labeldistance=2.5, labelangle=-45, headlabel="False"] ;
67 [label="Fare <= 2.5\ngini = 0.1\nsamples = 170\nvalue = [9, 161]"] ;
66 -> 67 ;
68 [label="Age_Class <= 5.0\ngini = 0.169\nsamples = 75\nvalue = [7, 68]"] ;
67 -> 68 ;
69 [label="gini = 0.0\nsamples = 18\nvalue = [0, 18]"] ;
68 -> 69 ;
70 [label="Age_Class <= 7.0\ngini = 0.215\nsamples = 57\nvalue = [7, 50]"] ;
68 -> 70 ;
71 [label="relatives <= 2.5\ngini = 0.332\nsamples = 19\nvalue = [4, 15]"] ;
70 -> 71 ;
72 [label="SibSp <= 0.5\ngini = 0.36\nsamples = 17\nvalue = [4, 13]"] ;
71 -> 72 ;
73 [label="gini = 0.278\nsamples = 12\nvalue = [2, 10]"] ;
72 -> 73 ;
74 [label="gini = 0.48\nsamples = 5\nvalue = [2, 3]"] ;
72 -> 74 ;
75 [label="gini = 0.0\nsamples = 2\nvalue = [0, 2]"] ;
71 -> 75 ;
76 [label="Age_Class <= 9.0\ngini = 0.145\nsamples = 38\nvalue = [3, 35]"] ;
70 -> 76 ;
77 [label="gini = 0.0\nsamples = 16\nvalue = [0, 16]"] ;
76 -> 77 ;
78 [label="Fare <= 1.5\ngini = 0.236\nsamples = 22\nvalue = [3, 19]"] ;
76 -> 78 ;
79 [label="gini = 0.298\nsamples = 11\nvalue = [2, 9]"] ;
78 -> 79 ;
80 [label="gini = 0.165\nsamples = 11\nvalue = [1, 10]"] ;
78 -> 80 ;
81 [label="relatives <= 2.5\ngini = 0.041\nsamples = 95\nvalue = [2, 93]"] ;
67 -> 81 ;
82 [label="gini = 0.0\nsamples = 82\nvalue = [0, 82]"] ;
81 -> 82 ;
83 [label="SibSp <= 1.5\ngini = 0.26\nsamples = 13\nvalue = [2, 11]"] ;
81 -> 83 ;
84 [label="Fare <= 3.5\ngini = 0.375\nsamples = 8\nvalue = [2, 6]"] ;
83 -> 84 ;
85 [label="gini = 0.0\nsamples = 4\nvalue = [0, 4]"] ;
84 -> 85 ;
86 [label="Age <= 0.5\ngini = 0.5\nsamples = 4\nvalue = [2, 2]"] ;
84 -> 86 ;
87 [label="gini = 0.0\nsamples = 1\nvalue = [1, 0]"] ;
86 -> 87 ;
88 [label="gini = 0.444\nsamples = 3\nvalue = [1, 2]"] ;
86 -> 88 ;
89 [label="gini = 0.0\nsamples = 5\nvalue = [0, 5]"] ;
83 -> 89 ;
90 [label="relatives <= 3.5\ngini = 0.5\nsamples = 144\nvalue = [72, 72]"] ;
66 -> 90 ;
91 [label="Age_Class <= 10.5\ngini = 0.484\nsamples = 117\nvalue = [48, 69]"] ;
90 -> 91 ;
92 [label="Embarked <= 0.5\ngini = 0.456\nsamples = 94\nvalue = [33, 61]"] ;
91 -> 92 ;
93 [label="SibSp <= 1.5\ngini = 0.498\nsamples = 43\nvalue = [20, 23]"] ;
92 -> 93 ;
94 [label="relatives <= 2.5\ngini = 0.495\nsamples = 42\nvalue = [19, 23]"] ;
93 -> 94 ;
95 [label="gini = 0.493\nsamples = 41\nvalue = [18, 23]"] ;
94 -> 95 ;
96 [label="gini = 0.0\nsamples = 1\nvalue = [1, 0]"] ;
94 -> 96 ;
97 [label="gini = 0.0\nsamples = 1\nvalue = [1, 0]"] ;
93 -> 97 ;
98 [label="Fare <= 1.5\ngini = 0.38\nsamples = 51\nvalue = [13, 38]"] ;
92 -> 98 ;
99 [label="relatives <= 1.5\ngini = 0.312\nsamples = 31\nvalue = [6, 25]"] ;
98 -> 99 ;
100 [label="gini = 0.278\nsamples = 30\nvalue = [5, 25]"] ;
99 -> 100 ;
101 [label="gini = 0.0\nsamples = 1\nvalue = [1, 0]"] ;
99 -> 101 ;
102 [label="Embarked <= 1.5\ngini = 0.455\nsamples = 20\nvalue = [7, 13]"] ;
98 -> 102 ;
103 [label="gini = 0.498\nsamples = 15\nvalue = [7, 8]"] ;
102 -> 103 ;
104 [label="gini = 0.0\nsamples = 5\nvalue = [0, 5]"] ;
102 -> 104 ;
105 [label="Fare <= 0.5\ngini = 0.454\nsamples = 23\nvalue = [15, 8]"] ;
91 -> 105 ;
106 [label="gini = 0.0\nsamples = 4\nvalue = [4, 0]"] ;
105 -> 106 ;
107 [label="relatives <= 2.5\ngini = 0.488\nsamples = 19\nvalue = [11, 8]"] ;
105 -> 107 ;
108 [label="relatives <= 0.5\ngini = 0.475\nsamples = 18\nvalue = [11, 7]"] ;
107 -> 108 ;
109 [label="gini = 0.48\nsamples = 5\nvalue = [2, 3]"] ;
108 -> 109 ;
110 [label="gini = 0.426\nsamples = 13\nvalue = [9, 4]"] ;
108 -> 110 ;
111 [label="gini = 0.0\nsamples = 1\nvalue = [0, 1]"] ;
107 -> 111 ;
112 [label="Fare <= 1.5\ngini = 0.198\nsamples = 27\nvalue = [24, 3]"] ;
90 -> 112 ;
113 [label="gini = 0.0\nsamples = 1\nvalue = [0, 1]"] ;
112 -> 113 ;
114 [label="relatives <= 5.5\ngini = 0.142\nsamples = 26\nvalue = [24, 2]"] ;
112 -> 114 ;
115 [label="gini = 0.0\nsamples = 14\nvalue = [14, 0]"] ;
114 -> 115 ;
116 [label="relatives <= 6.5\ngini = 0.278\nsamples = 12\nvalue = [10, 2]"] ;
114 -> 116 ;
117 [label="Age <= 2.5\ngini = 0.408\nsamples = 7\nvalue = [5, 2]"] ;
116 -> 117 ;
118 [label="gini = 0.32\nsamples = 5\nvalue = [4, 1]"] ;
117 -> 118 ;
119 [label="gini = 0.5\nsamples = 2\nvalue = [1, 1]"] ;
117 -> 119 ;
120 [label="gini = 0.0\nsamples = 5\nvalue = [5, 0]"] ;
116 -> 120 ;
}